digraph Tree {
node [shape=box] ;
0 [label="X[0] <= 7.5\nmse = 6036523013.863\nsamples = 1095\nvalue = 180657.652"] ;
1 [label="X[0] <= 6.5\nmse = 2508893823.932\nsamples = 920\nvalue = 157656.946"] ;
0 -> 1 [labeldistance=2.5, labelangle=45, headlabel="True"] ;
2 [label="X[0] <= 5.5\nmse = 1466886457.811\nsamples = 687\nvalue = 140460.409"] ;
1 -> 2 ;
3 [label="X[0] <= 4.5\nmse = 1010545618.454\nsamples = 397\nvalue = 125222.935"] ;
2 -> 3 ;
4 [label="X[17] <= 0.5\nmse = 998360210.154\nsamples = 107\nvalue = 102532.551"] ;
3 -> 4 ;
5 [label="mse = 783491449.02\nsamples = 106\nvalue = 101084.745"] ;
4 -> 5 ;
6 [label="mse = 0.0\nsamples = 1\nvalue = 256000.0"] ;
4 -> 6 ;
7 [label="X[6] <= 0.5\nmse = 754988567.411\nsamples = 290\nvalue = 133594.903"] ;
3 -> 7 ;
8 [label="mse = 705550875.179\nsamples = 241\nvalue = 137666.481"] ;
7 -> 8 ;
9 [label="mse = 515584573.095\nsamples = 49\nvalue = 113569.388"] ;
7 -> 9 ;
10 [label="X[6] <= 0.5\nmse = 1338632095.055\nsamples = 290\nvalue = 161319.986"] ;
2 -> 10 ;
11 [label="X[1] <= 6.5\nmse = 1113899017.116\nsamples = 233\nvalue = 169796.532"] ;
10 -> 11 ;
12 [label="mse = 765745847.438\nsamples = 121\nvalue = 154981.182"] ;
11 -> 12 ;
13 [label="mse = 996708353.169\nsamples = 112\nvalue = 185802.402"] ;
11 -> 13 ;
14 [label="X[15] <= 0.5\nmse = 762963192.15\nsamples = 57\nvalue = 126670.246"] ;
10 -> 14 ;
15 [label="mse = 689422901.444\nsamples = 49\nvalue = 131679.673"] ;
14 -> 15 ;
16 [label="mse = 118263593.75\nsamples = 8\nvalue = 95987.5"] ;
14 -> 16 ;
17 [label="X[6] <= 0.5\nmse = 2138427268.59\nsamples = 233\nvalue = 208360.897"] ;
1 -> 17 ;
18 [label="X[1] <= 8.5\nmse = 1929792664.489\nsamples = 212\nvalue = 213600.802"] ;
17 -> 18 ;
19 [label="X[9] <= 0.5\nmse = 1572880521.345\nsamples = 190\nvalue = 208151.5"] ;
18 -> 19 ;
20 [label="mse = 1327849950.267\nsamples = 181\nvalue = 205054.061"] ;
19 -> 20 ;
21 [label="mse = 2427358024.691\nsamples = 9\nvalue = 270444.444"] ;
19 -> 21 ;
22 [label="X[18] <= 0.5\nmse = 2540913628.771\nsamples = 22\nvalue = 260662.955"] ;
18 -> 22 ;
23 [label="mse = 1903402023.583\nsamples = 21\nvalue = 254791.19"] ;
22 -> 23 ;
24 [label="mse = 0.0\nsamples = 1\nvalue = 383970.0"] ;
22 -> 24 ;
25 [label="X[42] <= 0.5\nmse = 1169254666.44\nsamples = 21\nvalue = 155462.81"] ;
17 -> 25 ;
26 [label="X[24] <= 0.5\nmse = 586491411.0\nsamples = 20\nvalue = 149937.0"] ;
25 -> 26 ;
27 [label="mse = 441360057.618\nsamples = 19\nvalue = 146970.526"] ;
26 -> 27 ;
28 [label="mse = 0.0\nsamples = 1\nvalue = 206300.0"] ;
26 -> 28 ;
29 [label="mse = 0.0\nsamples = 1\nvalue = 265979.0"] ;
25 -> 29 ;
30 [label="X[0] <= 8.5\nmse = 7179411637.416\nsamples = 175\nvalue = 301575.651"] ;
0 -> 30 [labeldistance=2.5, labelangle=-45, headlabel="False"] ;
31 [label="X[1] <= 8.5\nmse = 4098590627.552\nsamples = 132\nvalue = 278342.129"] ;
30 -> 31 ;
32 [label="X[28] <= 0.5\nmse = 3313785435.811\nsamples = 102\nvalue = 265427.588"] ;
31 -> 32 ;
33 [label="X[29] <= 0.5\nmse = 3079128726.999\nsamples = 92\nvalue = 259300.152"] ;
32 -> 33 ;
34 [label="mse = 2612756819.129\nsamples = 74\nvalue = 249665.919"] ;
33 -> 34 ;
35 [label="mse = 3046102093.914\nsamples = 18\nvalue = 298907.556"] ;
33 -> 35 ;
36 [label="X[1] <= 6.0\nmse = 1949360000.0\nsamples = 10\nvalue = 321800.0"] ;
32 -> 36 ;
37 [label="mse = 0.0\nsamples = 1\nvalue = 262000.0"] ;
36 -> 37 ;
38 [label="mse = 1724469135.802\nsamples = 9\nvalue = 328444.444"] ;
36 -> 38 ;
39 [label="X[1] <= 11.5\nmse = 4271819328.512\nsamples = 30\nvalue = 322251.567"] ;
31 -> 39 ;
40 [label="X[3] <= 0.5\nmse = 2758693485.413\nsamples = 29\nvalue = 314811.966"] ;
39 -> 40 ;
41 [label="mse = 2730193068.787\nsamples = 26\nvalue = 320156.538"] ;
40 -> 41 ;
42 [label="mse = 612630117.556\nsamples = 3\nvalue = 268492.333"] ;
40 -> 42 ;
43 [label="mse = 0.0\nsamples = 1\nvalue = 538000.0"] ;
39 -> 43 ;
44 [label="X[7] <= 0.5\nmse = 9893007735.718\nsamples = 43\nvalue = 372897.163"] ;
30 -> 44 ;
45 [label="X[1] <= 8.5\nmse = 8311022759.416\nsamples = 41\nvalue = 382678.732"] ;
44 -> 45 ;
46 [label="X[18] <= 0.5\nmse = 2124337423.217\nsamples = 22\nvalue = 331378.682"] ;
45 -> 46 ;
47 [label="mse = 1754397001.548\nsamples = 20\nvalue = 338316.55"] ;
46 -> 47 ;
48 [label="mse = 529000000.0\nsamples = 2\nvalue = 262000.0"] ;
46 -> 48 ;
49 [label="X[1] <= 11.5\nmse = 8898960359.219\nsamples = 19\nvalue = 442078.789"] ;
45 -> 49 ;
50 [label="mse = 8610599130.561\nsamples = 17\nvalue = 431856.706"] ;
49 -> 50 ;
51 [label="mse = 2912383122.25\nsamples = 2\nvalue = 528966.5"] ;
49 -> 51 ;
52 [label="X[1] <= 11.5\nmse = 153140625.0\nsamples = 2\nvalue = 172375.0"] ;
44 -> 52 ;
53 [label="mse = 0.0\nsamples = 1\nvalue = 184750.0"] ;
52 -> 53 ;
54 [label="mse = 0.0\nsamples = 1\nvalue = 160000.0"] ;
52 -> 54 ;
}
